solver_type L1R_LR
nr_class 2
label 0 1
nr_feature 1766
bias 1.000000000000000
w
-3.425971878873964 
-0.8404286876556559 
0 
0 
0 
0 
0 
0 
0 
0 
0 
0 
0 
0 
0 
0 
0 
0 
0 
0 
0 
0 
0 
0 
0 
0 
0 
0 
0 
0 
0 
0 
0 
0 
0 
0 
0 
0 
0 
0 
0 
0 
0 
0 
0 
0 
3.586440762964501 
-2.265475649651167 
0 
-2.797195380056905 
0 
-0.7574543536015228 
0 
0 
0 
0 
0 
0 
0 
0 
0 
0.1159107800547408 
0 
0 
0 
0 
0 
0 
-2.187114256718353 
-1.898978369320540 
-2.767648238532088 
-1.671772399726819 
0 
-2.126294005198070 
0 
0 
0 
0 
-0.3071111873870928 
0 
0 
0 
0 
-0.4977291440202015 
0 
-2.371301990869564 
0 
-3.519472257652763 
0 
0 
0 
-4.822869254547414 
0 
1.671608266943379 
0 
0 
0 
0 
0 
0 
0 
0 
0 
0 
0 
0 
0 
0 
0 
0 
-5.079851045815181 
-4.738560965298223 
0 
0 
0 
0 
0 
0 
0 
0 
0 
0 
0 
0 
0 
0 
0 
-2.733235874907750 
0 
2.307631880159559 
0 
0 
0 
-5.325639235423066 
0 
2.472511853038211 
0 
-1.931962578361463 
-1.098612288667693 
0 
0 
0 
0 
0 
0 
2.840245467669891 
0 
0 
0 
0 
0 
0 
-1.761787094624638 
1.181624751970059 
-0.6302174688615747 
-3.090691859417733 
0 
-2.618732088027126 
0 
0 
0 
0 
0 
0 
0 
0 
0 
-0.6742037164912410 
0 
-1.076060288015960 
0 
0 
0 
0 
0 
0 
0 
0 
0 
0 
0 
0 
0 
0 
0 
0 
0 
0 
0 
0 
0 
0 
0 
0 
0 
0 
0 
0 
0 
0 
0 
0 
0 
0 
0 
0 
0 
0 
0 
0 
0 
0 
0 
2.775156220305222 
5.022434053374060 
5.325639235423084 
0 
0 
0 
-1.350733753525594 
0 
0 
0 
0 
0 
0 
0 
0 
0 
1.700819973003751 
0 
0 
0 
0 
0 
0 
0.3513710640611211 
0 
0 
-1.465865546545827 
0 
0 
0 
0 
0 
0 
0 
0 
0 
0 
0 
0 
0 
0.3274522898506447 
0 
0 
0 
0 
0 
0 
0 
0 
0 
0 
0 
0 
0 
0 
0 
0 
0 
0 
0 
0 
0 
0 
0 
0 
0 
0 
0 
0 
0 
0 
0 
0 
0 
0 
0 
0 
0 
0 
0 
0 
0 
0 
0 
0.8109701878830642 
-1.671609328958869 
-2.350479237697706 
0 
1.350755062319229 
0 
0 
0 
0 
-3.178053830302173 
0 
0 
0 
0 
0 
0 
0 
0 
0 
0 
0 
0 
0 
-5.203068512343545 
0 
-4.166235376065262 
0 
0 
0 
0 
0 
0 
0 
0 
0 
0 
0 
0 
-3.178053830302173 
0 
-3.778310647637208 
0 
0 
0 
0 
0 
0 
0 
0 
0 
0 
0 
0 
0 
0 
0 
0 
0 
0 
0 
0 
0 
0 
0 
0 
0 
0 
0 
0 
0 
0 
0 
0 
0 
0 
0 
0 
0 
0 
0 
0 
0 
0 
0 
0 
0 
1.931978166002695 
0 
0 
0 
0 
0 
0 
0 
0 
0 
0 
0 
0 
0 
0 
0 
0 
0 
0 
0 
0 
0 
0 
0 
0 
0 
0 
0 
0 
0 
0 
0 
0 
0 
0 
0 
0 
0 
2.852857941888656 
0 
0 
0 
1.098612288667694 
0 
0 
0 
3.178053830302166 
0 
0 
0 
0 
0 
0 
0 
0 
0 
0 
0 
0 
0 
0 
0 
0 
0 
0.4221464456081916 
0 
0 
0 
0 
0 
0 
0 
0 
0 
0 
0 
0 
0 
0 
0 
0 
0 
0 
0 
0 
0 
0 
0 
0 
0 
0 
0 
0 
0 
0 
0 
0 
0 
0 
0 
0 
0 
0 
0 
0 
0 
0 
0 
0 
0 
0 
0 
0 
0 
0 
0 
0 
0 
0 
0 
0 
0 
0 
0 
0 
0 
0 
0 
0 
0 
0 
0 
0 
0 
0 
0 
0 
0 
0 
0 
0 
0 
0 
0 
0 
0 
0 
0 
0 
0 
0 
0 
0 
0 
0 
0 
0 
0 
0 
0 
0 
0 
0 
0 
0 
0 
0 
0 
0 
0 
0 
0 
0 
0 
0 
0 
0 
0 
0 
0 
0 
0 
0 
0 
0 
0 
0 
0 
0 
0 
0 
0 
0 
0 
0 
0 
0 
0 
0 
0 
0 
0 
0 
0 
0 
0 
0 
0 
0 
0 
0 
0 
0 
0 
0 
0 
0 
0 
0 
0 
0 
0 
0 
0 
0 
0 
0 
0 
0 
0 
0 
0 
0 
0 
0 
0 
0 
0 
0 
0 
0 
0 
0 
0 
0 
0 
0 
0 
2.344566289843460 
0 
0 
0 
0 
0 
0 
0 
0 
0 
0 
0 
0 
0 
0 
0 
0 
0 
0 
0 
0 
0 
0 
0 
0 
0 
0 
0 
0 
0 
0 
0 
0 
0 
0 
0 
0 
0 
0 
0 
0 
0 
0 
0 
0 
0 
0 
0 
0 
0 
0 
0 
0 
0 
0 
0 
0 
0 
0 
0 
0 
0 
0 
0 
0 
0 
0 
0 
0 
0 
0 
0 
0 
0 
0 
0 
0 
0 
0 
0 
0 
0 
0 
0 
0 
0 
-0.1155667030607178 
0 
-2.828193605461871 
0 
-1.750024417109497 
0 
0 
0 
0 
0 
0 
0 
0 
0 
0 
0 
0 
0 
0 
0 
0 
0 
0 
-3.242633623422918 
0 
-2.809693433225160 
-1.507953068632884 
0 
-3.367563750692884 
0 
0 
0 
0 
0 
0 
0 
0 
0 
0 
0 
-1.229023626351036 
0 
0 
0 
0 
0 
0 
0 
0 
0 
0 
0 
0 
0 
0 
0 
0 
0 
0 
0 
0 
0 
0 
0 
0 
0 
0 
0 
0 
0 
0 
0 
0 
0 
0 
0 
0 
0 
0 
0 
0 
0 
0 
0 
0 
0 
0 
0 
0 
0 
0 
0 
0 
0 
0 
0 
0 
0 
0 
0 
0 
0 
0 
0 
0 
0 
0 
0 
0 
0 
0 
0 
-1.740346531735828 
0 
0 
0 
0 
0 
0 
0 
0 
0 
0 
0 
-2.209258550960535 
0 
0 
0 
0 
0 
0 
0 
0 
0 
0 
0 
0 
0 
0 
0 
0 
0 
0 
0 
0 
0 
0 
0 
0 
0 
0 
0 
0 
0 
0 
0 
0 
0 
0 
0 
0 
0 
0 
0 
0 
0 
0 
0 
0 
0 
0 
0 
0 
0 
0 
0 
0 
0 
0 
0 
0 
0 
0 
0 
0 
0 
0 
0 
0 
0 
0 
0 
0 
0 
0 
0 
0 
0 
0 
0 
0 
0 
0 
0 
0 
0 
0 
0 
0 
0 
0 
0 
0 
0 
0 
0 
0 
0 
0 
0 
0 
0 
0 
0 
0 
0 
0 
0 
0 
0 
0 
0 
0 
0 
0 
0 
0 
0 
0 
0 
0 
0 
0 
0 
0 
0 
0 
0 
0 
0 
0 
0 
0 
0 
0 
0 
0 
0 
0 
0 
0 
0 
0 
0 
0 
0 
0 
0 
0 
0 
0 
0 
0 
0 
0 
0 
0 
0 
0 
0 
0 
0 
0 
0 
0 
0 
0 
0 
0 
0 
0 
0 
0 
0 
2.245986964127903 
5.051174459288408 
1.763397789850790 
0 
-0.3513375869063238 
0 
5.112160458281594 
0 
0 
0 
0 
0 
0 
0 
0 
0 
2.579679759441922 
0 
0 
0 
0 
0 
0 
0 
0.2181574545544686 
0.2576639572492473 
-0.07558594279240646 
0 
0.2890006902172576 
0 
0 
0 
0 
0 
0 
0 
0 
0 
0 
0 
1.798864245318773 
0 
1.927888677929218 
4.895040583286396 
-1.181624773404367 
0 
0 
0 
0 
0 
0 
-0.4316877168072254 
0 
0 
0 
0 
0 
0 
0 
0 
0 
0 
0 
0 
0 
-0.2455053488988798 
0 
-1.450346916853575 
0 
0 
0 
0 
0 
0 
0 
0 
0 
0 
0 
0 
0 
0 
-0.1719236564529533 
0 
2.691883540016091 
0 
0.6302174688615746 
0 
0 
0 
4.330345745146986 
0 
0 
0 
0 
0 
0 
0 
0 
0 
2.836238041494005 
0 
0 
0 
0 
0 
0 
-0.2576372701120301 
1.418424836086581 
0 
-0.2500958381541420 
0 
-0.5965918595750406 
0 
0 
0 
0 
0 
0 
0 
0 
0 
0 
0 
0.05295328052951383 
0 
1.767463460265379 
0 
3.038631605013719 
0 
1.461264891029380 
0 
0 
0 
0 
0 
0 
0 
0 
0 
0 
0 
1.422398958144171 
0 
0 
0 
0 
0 
0 
0.1153427258133195 
0 
0.2126476469588625 
0 
0 
0 
0 
0 
0 
0 
0 
0 
0 
0 
0 
0 
0 
0.2745108200283192 
0 
0 
0 
0 
0 
0 
0 
0 
0 
0 
0 
0 
0 
0 
0 
0 
0 
0 
0 
0 
0 
0 
0 
0 
0 
0 
0 
0 
0 
0 
0 
0 
0 
0 
0 
0 
0 
0 
0 
0 
0 
0 
0 
2.130055797998654 
0 
2.711854902613974 
0 
0 
0 
0 
0 
0 
0 
0 
0 
0 
0 
0 
0 
3.367441960098753 
0 
1.740585601279276 
0 
0 
0 
0 
-0.2853443116701664 
0 
0.6387968572129284 
0 
0 
0 
0 
0 
0 
0 
0 
0 
0 
0 
0 
0 
0 
0.6365002840021016 
0 
0 
0 
0 
0 
0 
0 
0 
0 
0 
0 
0 
0 
0 
0 
0 
0 
0 
0 
0 
0 
0 
0 
0 
0 
0 
0 
0 
0 
0 
0 
0 
0 
0 
0 
0 
0 
0 
0 
0 
0 
0 
0 
0 
0 
0 
0 
0 
0 
0 
0 
0 
0 
0 
0 
0 
0 
0 
0 
0 
0 
0 
0 
0 
0 
0 
0 
0 
0 
0 
0 
0 
0 
0 
0 
0 
0 
0 
0 
0 
0 
0 
0 
0 
0 
0 
0 
0 
0 
0 
0 
0 
0 
0 
0 
0 
0 
0 
0 
0 
0 
0 
0 
0 
0 
0 
0 
0 
0 
0 
0 
0 
0 
0 
0 
0 
0 
0 
0 
0 
0 
0 
0 
0 
0 
0 
0 
0 
0 
0 
0 
0 
0 
0 
0 
0 
0 
0 
0 
0 
0 
0 
0 
0 
0 
0 
0 
0 
0 
0 
0 
0 
0 
0 
0 
0 
0 
0 
0 
0 
0 
0 
0 
0 
0 
0 
0 
0 
0 
0 
0 
0 
0 
0 
0 
0 
0 
0 
0 
0 
0 
0 
0 
0 
0 
0 
0 
0 
0 
0 
0 
0 
0 
0 
0 
0 
0 
0 
0 
0 
0 
0 
0 
0 
0 
0 
0 
0 
0 
5.819873614183097 
0 
0 
0 
0 
0 
0 
0 
0 
0 
0 
0 
0 
0 
0 
0 
0 
0 
0 
0 
0 
0 
0 
0 
0 
0 
0 
0 
0 
0 
0 
0 
0 
0 
0 
0 
0 
0 
0 
0 
0 
0 
0 
0 
0 
0 
0 
0 
0 
0 
0 
0 
0 
0 
0 
0 
0 
0 
0 
0 
0 
0 
0 
0 
0 
0 
0 
0 
0 
0 
0 
0 
0 
0 
0 
0 
0 
0 
0 
0 
0 
0 
0 
0 
0 
0 
0 
0 
0 
0 
0 
0 
0 
0 
0 
0 
0 
0 
0 
0 
0 
0 
0 
0 
0 
0 
0 
0 
0 
0 
0 
0 
0 
0 
0 
0 
0 
0 
0 
0 
0 
0 
0 
0 
0 
0 
0 
0 
0 
0 
0 
0 
0 
0 
0 
0 
0 
0 
0 
0 
0 
0 
0 
0 
0 
0 
0 
0 
0 
0 
0 
0 
0 
0 
0 
0 
0 
0 
0 
0 
0 
0 
0 
0 
0 
0 
0 
0 
0 
0 
0.7865230837924888 
0 
0.6008666836096919 
0 
0 
0 
3.178053830302166 
0 
0 
0 
0 
0 
0 
0 
0 
0 
0 
0 
0 
0 
0 
0 
0 
0 
0 
0 
0 
0 
0 
0 
0 
0 
0 
0 
0 
0 
0 
0 
0 
0 
4.533711196750837 
0 
0 
0 
0 
0 
0 
0 
0 
0 
0 
0 
0 
0 
0 
0 
0 
0 
0 
0 
0 
0 
0 
0 
0 
0 
0 
0 
0 
0 
0 
0 
0 
0 
0 
0 
0 
0 
0 
0 
0 
0 
0 
0 
2.287561174930580 
3.010708381817226 
0.9866859626622168 
0 
-0.2978388076786774 
0 
3.778379900793266 
0 
-2.858103109124893 
0 
0 
0 
0 
-2.344587722513420 
0 
0 
1.232127982007767 
0 
2.225282645317063 
0 
0 
0 
0 
-1.812966387610039 
0 
-0.03908543054672636 
-0.2701544115004936 
0 
-0.5755642344970943 
0 
0 
0 
0 
-6.008544575423406 
0 
0 
0 
0 
-4.524235905061802 
0 
0 
0 
